FANN_FLO_2.1
num_layers=3
learning_rate=0.700000
connection_rate=1.000000
network_type=0
learning_momentum=0.000000
training_algorithm=2
train_error_function=1
train_stop_function=0
cascade_output_change_fraction=0.010000
quickprop_decay=-0.000100
quickprop_mu=1.750000
rprop_increase_factor=1.200000
rprop_decrease_factor=0.500000
rprop_delta_min=0.000000
rprop_delta_max=50.000000
rprop_delta_zero=0.100000
cascade_output_stagnation_epochs=12
cascade_candidate_change_fraction=0.010000
cascade_candidate_stagnation_epochs=12
cascade_max_out_epochs=150
cascade_min_out_epochs=50
cascade_max_cand_epochs=150
cascade_min_cand_epochs=50
cascade_num_candidate_groups=2
bit_fail_limit=3.49999994039535522461e-01
cascade_candidate_limit=1.00000000000000000000e+03
cascade_weight_multiplier=4.00000005960464477539e-01
cascade_activation_functions_count=10
cascade_activation_functions=3 5 7 8 10 11 14 15 16 17 
cascade_activation_steepnesses_count=4
cascade_activation_steepnesses=2.50000000000000000000e-01 5.00000000000000000000e-01 7.50000000000000000000e-01 1.00000000000000000000e+00 
layer_sizes=13 13 7 
scale_included=0
neurons (num_inputs, activation_function, activation_steepness)=(0, 0, 0.00000000000000000000e+00) (0, 0, 0.00000000000000000000e+00) (0, 0, 0.00000000000000000000e+00) (0, 0, 0.00000000000000000000e+00) (0, 0, 0.00000000000000000000e+00) (0, 0, 0.00000000000000000000e+00) (0, 0, 0.00000000000000000000e+00) (0, 0, 0.00000000000000000000e+00) (0, 0, 0.00000000000000000000e+00) (0, 0, 0.00000000000000000000e+00) (0, 0, 0.00000000000000000000e+00) (0, 0, 0.00000000000000000000e+00) (0, 0, 0.00000000000000000000e+00) (13, 5, 5.00000000000000000000e-01) (13, 5, 5.00000000000000000000e-01) (13, 5, 5.00000000000000000000e-01) (13, 5, 5.00000000000000000000e-01) (13, 5, 5.00000000000000000000e-01) (13, 5, 5.00000000000000000000e-01) (13, 5, 5.00000000000000000000e-01) (13, 5, 5.00000000000000000000e-01) (13, 5, 5.00000000000000000000e-01) (13, 5, 5.00000000000000000000e-01) (13, 5, 5.00000000000000000000e-01) (13, 5, 5.00000000000000000000e-01) (0, 5, 0.00000000000000000000e+00) (13, 5, 5.00000000000000000000e-01) (13, 5, 5.00000000000000000000e-01) (13, 5, 5.00000000000000000000e-01) (13, 5, 5.00000000000000000000e-01) (13, 5, 5.00000000000000000000e-01) (13, 5, 5.00000000000000000000e-01) (0, 5, 0.00000000000000000000e+00) 
connections (connected_to_neuron, weight)=(0, -6.17243468761444091797e-01) (1, 7.91056573390960693359e-01) (2, 1.49396419525146484375e+00) (3, 1.54964427947998046875e+01) (4, 8.17423095703125000000e+01) (5, -3.60619316101074218750e+01) (6, -2.07277342677116394043e-01) (7, -3.72271180152893066406e-01) (8, 7.34050810337066650391e-01) (9, 8.60402202606201171875e+00) (10, -8.18999481201171875000e+01) (11, -3.60462036132812500000e+01) (12, -1.17841684818267822266e+00) (0, 4.88511145114898681641e-01) (1, -8.74793753027915954590e-02) (2, -6.08176551759243011475e-02) (3, 1.27298474311828613281e+00) (4, 1.79127252101898193359e+00) (5, -5.43994307518005371094e-01) (6, 4.78668361902236938477e-01) (7, 5.29545485973358154297e-01) (8, -9.24768298864364624023e-02) (9, 2.93665826320648193359e-01) (10, -8.38846743106842041016e-01) (11, -4.48857605457305908203e-01) (12, 1.03271710872650146484e+00) (0, 2.02806025743484497070e-01) (1, 3.11846464872360229492e-01) (2, 1.17055165767669677734e+00) (3, 6.07181787490844726562e-01) (4, 3.08266486972570419312e-02) (5, 3.84885162115097045898e-01) (6, 3.86579155921936035156e-01) (7, 1.69459939002990722656e-01) (8, 1.07106244564056396484e+00) (9, 5.17319999635219573975e-02) (10, 3.22167724370956420898e-01) (11, 4.72450286149978637695e-01) (12, 2.25194573402404785156e+00) (0, 2.81093388795852661133e-01) (1, 1.14178366959095001221e-01) (2, 1.88687872141599655151e-02) (3, 7.19197615981101989746e-02) (4, 1.06279298663139343262e-01) (5, 1.33035406470298767090e-01) (6, 2.49667644500732421875e-01) (7, 4.00726288557052612305e-01) (8, 1.40960931777954101562e-01) (9, 1.46534085273742675781e-01) (10, 3.07143539190292358398e-01) (11, 2.45284676551818847656e-01) (12, -3.22668361663818359375e+00) (0, 1.25640019774436950684e-01) (1, 1.08641982078552246094e-01) (2, 7.23791420459747314453e-02) (3, 7.44997501373291015625e-01) (4, 3.56473959982395172119e-02) (5, 4.51586902141571044922e-01) (6, 3.76818239688873291016e-01) (7, 3.33098798990249633789e-01) (8, -4.30932594463229179382e-03) (9, 4.76261466741561889648e-01) (10, 5.05455434322357177734e-01) (11, 4.28169369697570800781e-02) (12, -1.29460632801055908203e+00) (0, -1.07927270233631134033e-01) (1, 3.98275494575500488281e-01) (2, -6.03646747767925262451e-02) (3, 7.55622386932373046875e-02) (4, 5.26915252208709716797e-01) (5, 1.81742951273918151855e-01) (6, 8.59987288713455200195e-02) (7, -1.22228913009166717529e-01) (8, -1.25398173928260803223e-01) (9, 7.78332874178886413574e-02) (10, -1.15493416786193847656e-01) (11, 1.55339315533638000488e-01) (12, -1.10394155979156494141e+00) (0, 2.91137069463729858398e-01) (1, 1.14099010825157165527e-01) (2, 5.21272383630275726318e-02) (3, 8.86817038059234619141e-01) (4, 7.11637064814567565918e-02) (5, -3.61702814698219299316e-02) (6, 6.23562812805175781250e-01) (7, 4.19065624475479125977e-01) (8, 2.77205497026443481445e-01) (9, -1.68110392987728118896e-02) (10, 3.64033877849578857422e-01) (11, 8.55717733502388000488e-02) (12, -3.32890772819519042969e+00) (0, -1.01666979491710662842e-01) (1, 3.45275074243545532227e-01) (2, 5.21291851997375488281e-01) (3, -1.15522110462188720703e+00) (4, 2.00231623649597167969e+00) (5, 8.78544270992279052734e-01) (6, 3.98295581340789794922e-01) (7, 1.86701551079750061035e-01) (8, 3.79174560308456420898e-01) (9, -8.95998895168304443359e-01) (10, 2.58495539426803588867e-01) (11, 1.36809444427490234375e+00) (12, 4.55660410225391387939e-02) (0, 5.86328329518437385559e-03) (1, 4.03672456741333007812e-01) (2, 3.09053182601928710938e+00) (3, -6.10277689993381500244e-02) (4, -2.46436566114425659180e-01) (5, 1.16255354881286621094e+00) (6, 1.10039031505584716797e+00) (7, 4.60073947906494140625e-01) (8, 1.04852902889251708984e+00) (9, -1.37914955615997314453e+00) (10, 1.20383560657501220703e+00) (11, 1.32931554317474365234e+00) (12, 1.81631815433502197266e+00) (0, 1.15027236938476562500e+00) (1, -2.53839761018753051758e-01) (2, -1.19237339496612548828e+00) (3, -2.64255928993225097656e+00) (4, -1.22571196407079696655e-02) (5, 3.36420267820358276367e-01) (6, 2.54029095172882080078e-01) (7, 5.55015206336975097656e-01) (8, -5.32282590866088867188e-01) (9, -1.74210518598556518555e-01) (10, 2.56039977073669433594e-01) (11, 8.29065024852752685547e-01) (12, 6.06848716735839843750e+00) (0, 2.09234881401062011719e+00) (1, -1.11422502994537353516e+00) (2, -1.49793565273284912109e+00) (3, 1.27152338624000549316e-01) (4, 9.69246625900268554688e-01) (5, -2.26657822728157043457e-01) (6, 1.70256280899047851562e+00) (7, 1.60608577728271484375e+00) (8, -6.21353149414062500000e-01) (9, -2.20153942704200744629e-01) (10, -5.96724450588226318359e-01) (11, 3.10418486595153808594e-01) (12, -5.37051931023597717285e-02) (0, -3.04419815540313720703e-01) (1, 8.89178574085235595703e-01) (2, 6.53402090072631835938e-01) (3, -1.45009791851043701172e+00) (4, 1.34627923369407653809e-01) (5, 6.45942568778991699219e-01) (6, -3.79525661468505859375e-01) (7, -5.48776924610137939453e-01) (8, 6.96419537067413330078e-01) (9, -6.55150413513183593750e-01) (10, 5.18756568431854248047e-01) (11, 7.24878907203674316406e-01) (12, -1.58575844764709472656e+00) (13, 1.37727813720703125000e+01) (14, 1.94544720649719238281e+00) (15, 9.72357153892517089844e-01) (16, -9.13237953186035156250e+00) (17, -2.57306885719299316406e+00) (18, 8.62659037113189697266e-01) (19, -2.02020525932312011719e+00) (20, -2.69342064857482910156e+00) (21, 1.32807445526123046875e+00) (22, 4.58080291748046875000e-01) (23, 3.10994654893875122070e-01) (24, -7.72669374942779541016e-01) (25, 7.93709516525268554688e-01) (13, 8.07949423789978027344e-01) (14, -7.27608108520507812500e+00) (15, -3.93320709466934204102e-01) (16, 3.67489844560623168945e-01) (17, 1.61039757728576660156e+00) (18, 2.90293008089065551758e-01) (19, 3.19985413551330566406e+00) (20, -1.17805051803588867188e+00) (21, -4.56228882074356079102e-01) (22, -4.62813049554824829102e-01) (23, 5.06228446960449218750e-01) (24, -3.54372239112854003906e+00) (25, -2.77383589744567871094e+00) (13, 8.94574642181396484375e-01) (14, -6.67686343193054199219e-01) (15, -5.45327186584472656250e-01) (16, 2.83213996887207031250e+00) (17, 2.77919054031372070312e+00) (18, 6.43687367439270019531e-01) (19, 1.68335393071174621582e-01) (20, 1.46782040596008300781e-01) (21, -3.95398050546646118164e-01) (22, -6.04862213134765625000e-01) (23, -1.43847093582153320312e+01) (24, 4.78930997848510742188e+00) (25, -2.51614451408386230469e+00) (13, 5.82467794418334960938e-01) (14, -1.41402995586395263672e+00) (15, -4.31461423635482788086e-01) (16, -4.62997376918792724609e-01) (17, -2.61796712875366210938e+00) (18, 3.20601868629455566406e+00) (19, 5.18642783164978027344e-01) (20, 5.10745763778686523438e-01) (21, -5.89536130428314208984e-01) (22, -5.78227341175079345703e-01) (23, 3.55181670188903808594e+00) (24, 3.46538734436035156250e+00) (25, -7.57241487503051757812e-01) (13, 2.92734861373901367188e-01) (14, 2.12713813781738281250e+00) (15, -1.92583575844764709473e-02) (16, 1.21175551414489746094e+00) (17, 1.30453348159790039062e+00) (18, 3.34375798702239990234e-01) (19, 3.00328874588012695312e+00) (20, 2.31388139724731445312e+00) (21, 1.47401893138885498047e+00) (22, 5.37494430318474769592e-03) (23, 3.77418488264083862305e-01) (24, 3.35559770464897155762e-02) (25, -1.88952314853668212891e+00) (13, 1.98314547538757324219e-01) (14, 1.87274181842803955078e+00) (15, -1.16031718254089355469e+00) (16, 3.39783489704132080078e-01) (17, 2.33129337430000305176e-02) (18, 3.68646234273910522461e-01) (19, 2.01135903596878051758e-01) (20, -2.53916573524475097656e+00) (21, -5.96609163284301757812e+00) (22, 1.19762755930423736572e-01) (23, 4.24152016639709472656e-01) (24, 6.67886212468147277832e-02) (25, -1.81255006790161132812e+00) 
