FANN_FLO_2.1
num_layers=3
learning_rate=0.700000
connection_rate=1.000000
network_type=0
learning_momentum=0.000000
training_algorithm=2
train_error_function=1
train_stop_function=0
cascade_output_change_fraction=0.010000
quickprop_decay=-0.000100
quickprop_mu=1.750000
rprop_increase_factor=1.200000
rprop_decrease_factor=0.500000
rprop_delta_min=0.000000
rprop_delta_max=50.000000
rprop_delta_zero=0.100000
cascade_output_stagnation_epochs=12
cascade_candidate_change_fraction=0.010000
cascade_candidate_stagnation_epochs=12
cascade_max_out_epochs=150
cascade_min_out_epochs=50
cascade_max_cand_epochs=150
cascade_min_cand_epochs=50
cascade_num_candidate_groups=2
bit_fail_limit=3.49999994039535522461e-01
cascade_candidate_limit=1.00000000000000000000e+03
cascade_weight_multiplier=4.00000005960464477539e-01
cascade_activation_functions_count=10
cascade_activation_functions=3 5 7 8 10 11 14 15 16 17 
cascade_activation_steepnesses_count=4
cascade_activation_steepnesses=2.50000000000000000000e-01 5.00000000000000000000e-01 7.50000000000000000000e-01 1.00000000000000000000e+00 
layer_sizes=13 13 7 
scale_included=0
neurons (num_inputs, activation_function, activation_steepness)=(0, 0, 0.00000000000000000000e+00) (0, 0, 0.00000000000000000000e+00) (0, 0, 0.00000000000000000000e+00) (0, 0, 0.00000000000000000000e+00) (0, 0, 0.00000000000000000000e+00) (0, 0, 0.00000000000000000000e+00) (0, 0, 0.00000000000000000000e+00) (0, 0, 0.00000000000000000000e+00) (0, 0, 0.00000000000000000000e+00) (0, 0, 0.00000000000000000000e+00) (0, 0, 0.00000000000000000000e+00) (0, 0, 0.00000000000000000000e+00) (0, 0, 0.00000000000000000000e+00) (13, 5, 5.00000000000000000000e-01) (13, 5, 5.00000000000000000000e-01) (13, 5, 5.00000000000000000000e-01) (13, 5, 5.00000000000000000000e-01) (13, 5, 5.00000000000000000000e-01) (13, 5, 5.00000000000000000000e-01) (13, 5, 5.00000000000000000000e-01) (13, 5, 5.00000000000000000000e-01) (13, 5, 5.00000000000000000000e-01) (13, 5, 5.00000000000000000000e-01) (13, 5, 5.00000000000000000000e-01) (13, 5, 5.00000000000000000000e-01) (0, 5, 0.00000000000000000000e+00) (13, 5, 5.00000000000000000000e-01) (13, 5, 5.00000000000000000000e-01) (13, 5, 5.00000000000000000000e-01) (13, 5, 5.00000000000000000000e-01) (13, 5, 5.00000000000000000000e-01) (13, 5, 5.00000000000000000000e-01) (0, 5, 0.00000000000000000000e+00) 
connections (connected_to_neuron, weight)=(0, 6.03694282472133636475e-02) (1, 1.26414310932159423828e+00) (2, 3.72734808921813964844e+00) (3, 6.02294385433197021484e-01) (4, 5.91526031494140625000e-01) (5, -1.74431934952735900879e-01) (6, -1.68642833828926086426e-01) (7, 2.72945857048034667969e+00) (8, -1.90929889678955078125e+00) (9, 1.78792253136634826660e-01) (10, 1.78715690970420837402e-01) (11, 2.89399772882461547852e-01) (12, 7.20621824264526367188e+00) (0, 2.95926854014396667480e-02) (1, 1.89965888857841491699e-01) (2, 7.00842738151550292969e-01) (3, 8.93294453620910644531e-01) (4, 1.48921430110931396484e+00) (5, -4.77415233850479125977e-01) (6, -2.14204385876655578613e-01) (7, 1.61626398563385009766e-01) (8, 1.89312085509300231934e-01) (9, 1.02324032783508300781e+00) (10, 1.21301615238189697266e+00) (11, -5.65913617610931396484e-01) (12, -5.19716596603393554688e+00) (0, 5.01502871513366699219e-01) (1, -1.49109685420989990234e+00) (2, 1.90038755536079406738e-01) (3, 5.79757571220397949219e-01) (4, -3.58193016052246093750e+00) (5, -9.79039072990417480469e-03) (6, 2.71147847175598144531e-01) (7, -8.72778320312500000000e+00) (8, -6.18460364639759063721e-02) (9, 6.30159676074981689453e-02) (10, -2.90301060676574707031e+00) (11, 4.08523470163345336914e-01) (12, 8.38864326477050781250e-01) (0, 9.06812429428100585938e-01) (1, 2.34918761253356933594e+00) (2, 1.27464473247528076172e-01) (3, -3.14613372087478637695e-01) (4, -4.70149338245391845703e-01) (5, 6.83776557445526123047e-01) (6, 5.23045241832733154297e-01) (7, 1.30984270572662353516e+00) (8, 6.86284482479095458984e-01) (9, -3.20697873830795288086e-01) (10, -5.70052623748779296875e-01) (11, 9.11882460117340087891e-01) (12, 4.41829109191894531250e+00) (0, 3.08961033821105957031e-01) (1, 3.35719078779220581055e-01) (2, 5.57273924350738525391e-01) (3, 4.63802590966224670410e-02) (4, 3.56129348278045654297e-01) (5, 3.19223880767822265625e-01) (6, 2.84227371215820312500e-01) (7, 4.27431851625442504883e-01) (8, 8.64333987236022949219e-01) (9, 1.50735780596733093262e-01) (10, 3.64272058010101318359e-01) (11, 1.18538036942481994629e-01) (12, 4.36551421880722045898e-01) (0, -6.14375434815883636475e-03) (1, 2.69185066223144531250e+00) (2, 3.57485294342041015625e-01) (3, 1.14576828479766845703e+00) (4, -3.52877765893936157227e-01) (5, -8.29544723033905029297e-01) (6, -5.03815114498138427734e-01) (7, 6.83714246749877929688e+00) (8, -9.34449359774589538574e-02) (9, 4.84058290719985961914e-01) (10, 1.34138667583465576172e+00) (11, -1.29376992583274841309e-01) (12, 2.59340077638626098633e-01) (0, -9.06088799238204956055e-02) (1, 5.13958156108856201172e-01) (2, 1.97525703907012939453e+00) (3, 5.12535095214843750000e-01) (4, 3.12037795782089233398e-01) (5, -1.88541918992996215820e-01) (6, -5.56966327130794525146e-02) (7, -1.88781809806823730469e+00) (8, 6.14924669265747070312e-01) (9, 6.94254577159881591797e-01) (10, 2.88795858621597290039e-01) (11, -4.93565797805786132812e-02) (12, 1.53483659029006958008e-01) (0, 4.20051664113998413086e-01) (1, 2.60488599538803100586e-01) (2, 9.12744581699371337891e-01) (3, 4.94573786854743957520e-02) (4, 4.61772859096527099609e-01) (5, 3.47465485334396362305e-01) (6, 1.62219583988189697266e-01) (7, 1.39723193645477294922e+00) (8, 6.55918359756469726562e-01) (9, 1.97668805718421936035e-01) (10, 7.20655500888824462891e-01) (11, 1.22835069894790649414e-01) (12, -8.85924771428108215332e-02) (0, 6.85712993144989013672e-01) (1, 6.71255812048912048340e-02) (2, 3.15171211957931518555e-01) (3, 2.68642127513885498047e-01) (4, -4.00329500436782836914e-01) (5, 3.14434319734573364258e-02) (6, 3.43787014484405517578e-01) (7, -1.65121555328369140625e+00) (8, 8.29520404338836669922e-01) (9, 5.93122206628322601318e-02) (10, -1.09833061695098876953e+00) (11, 4.61662590503692626953e-01) (12, -2.96201288700103759766e-01) (0, 5.78972518444061279297e-01) (1, 3.96083188056945800781e+00) (2, 1.26973497867584228516e+00) (3, 4.25270199775695800781e-01) (4, -1.70550122857093811035e-02) (5, -3.72797511518001556396e-02) (6, 2.13074818253517150879e-01) (7, 2.15717315673828125000e+00) (8, -1.19347515106201171875e+01) (9, -3.91007930040359497070e-01) (10, -3.07328742928802967072e-03) (11, 7.07618415355682373047e-01) (12, -3.08018660545349121094e+00) (0, -6.43200099468231201172e-01) (1, -2.35237526893615722656e+00) (2, 4.95125204324722290039e-01) (3, 9.35572385787963867188e-01) (4, 9.35966193675994873047e-01) (5, -5.39928197860717773438e-01) (6, -1.48006260395050048828e-01) (7, 2.85727739334106445312e-01) (8, 2.76924937963485717773e-01) (9, 7.59114384651184082031e-01) (10, 1.76396715641021728516e+00) (11, -3.84824454784393310547e-01) (12, -5.12735652923583984375e+00) (0, -2.21273258328437805176e-01) (1, 1.07532143592834472656e-01) (2, -7.17545151710510253906e-01) (3, 5.71815967559814453125e-01) (4, 7.01577365398406982422e-01) (5, -1.83206111192703247070e-01) (6, 6.94950297474861145020e-02) (7, 8.62378358840942382812e-01) (8, 6.06764745712280273438e+00) (9, 1.06419157981872558594e+00) (10, 5.18489778041839599609e-01) (11, -6.54980063438415527344e-01) (12, 5.83078384399414062500e-01) (13, 2.72503256797790527344e+00) (14, 1.18714714050292968750e+00) (15, 8.27425181865692138672e-01) (16, -4.13909524679183959961e-01) (17, 9.59639996290206909180e-02) (18, 5.39531409740447998047e-01) (19, 6.89303445816040039062e+00) (20, -2.93983578681945800781e+00) (21, -3.72260165214538574219e+00) (22, -3.18257546424865722656e+00) (23, 1.14297592639923095703e+00) (24, 3.38667511940002441406e+00) (25, 2.04801940917968750000e+00) (13, 9.16427653282880783081e-03) (14, 1.32120668888092041016e+00) (15, 1.05151414871215820312e+00) (16, -6.39719426631927490234e-01) (17, 1.47519528865814208984e+00) (18, -7.25414976477622985840e-02) (19, 4.64113044738769531250e+00) (20, 2.73291993141174316406e+00) (21, 1.56012284755706787109e+00) (22, 2.31048393249511718750e+00) (23, 3.96539926528930664062e-01) (24, -1.40969884395599365234e+00) (25, -6.81583404541015625000e-01) (13, -1.28274023532867431641e+00) (14, 8.30462992191314697266e-01) (15, 2.08410367369651794434e-01) (16, -5.11789858341217041016e-01) (17, -1.60646762847900390625e+01) (18, 9.80202555656433105469e-02) (19, 1.40439420938491821289e-01) (20, -2.45505595207214355469e+00) (21, 6.18214225769042968750e+00) (22, 4.28356021642684936523e-01) (23, 1.00218868255615234375e+00) (24, -1.73176020383834838867e-01) (25, -1.21030879020690917969e+00) (13, -2.33299717307090759277e-01) (14, 8.81713151931762695312e-01) (15, -2.88812470436096191406e+00) (16, -5.29208838939666748047e-01) (17, -7.28874742984771728516e-01) (18, -2.93128602206707000732e-02) (19, 6.08138084411621093750e-01) (20, -9.93383452296257019043e-02) (21, -8.75568294525146484375e+00) (22, 2.08843517303466796875e+00) (23, 8.44964742660522460938e-01) (24, -1.03603327274322509766e+00) (25, -8.02839100360870361328e-01) (13, -1.58078765869140625000e+00) (14, 1.24254488945007324219e+00) (15, 6.65832579135894775391e-01) (16, -8.04494380950927734375e-01) (17, 2.63285368680953979492e-01) (18, -3.62979125976562500000e+00) (19, 1.38401702046394348145e-01) (20, 3.42062026262283325195e-01) (21, 6.06223464012145996094e-01) (22, -1.85686385631561279297e+00) (23, 1.29595208168029785156e+00) (24, 1.05618953704833984375e+00) (25, -2.01462101936340332031e+00) (13, -1.53027462959289550781e+00) (14, 1.08502995967864990234e+00) (15, -2.68199586868286132812e+00) (16, -3.56892198324203491211e-01) (17, 2.36945316195487976074e-01) (18, 3.32527041435241699219e+00) (19, 8.33096653223037719727e-02) (20, 3.50984036922454833984e-01) (21, -2.62306109070777893066e-02) (22, 1.32606059312820434570e-01) (23, 8.13924431800842285156e-01) (24, 9.64474260807037353516e-01) (25, -6.16141080856323242188e-01) 
