FANN_FLO_2.1
num_layers=3
learning_rate=0.700000
connection_rate=1.000000
network_type=0
learning_momentum=0.000000
training_algorithm=2
train_error_function=1
train_stop_function=0
cascade_output_change_fraction=0.010000
quickprop_decay=-0.000100
quickprop_mu=1.750000
rprop_increase_factor=1.200000
rprop_decrease_factor=0.500000
rprop_delta_min=0.000000
rprop_delta_max=50.000000
rprop_delta_zero=0.100000
cascade_output_stagnation_epochs=12
cascade_candidate_change_fraction=0.010000
cascade_candidate_stagnation_epochs=12
cascade_max_out_epochs=150
cascade_min_out_epochs=50
cascade_max_cand_epochs=150
cascade_min_cand_epochs=50
cascade_num_candidate_groups=2
bit_fail_limit=3.49999994039535522461e-01
cascade_candidate_limit=1.00000000000000000000e+03
cascade_weight_multiplier=4.00000005960464477539e-01
cascade_activation_functions_count=10
cascade_activation_functions=3 5 7 8 10 11 14 15 16 17 
cascade_activation_steepnesses_count=4
cascade_activation_steepnesses=2.50000000000000000000e-01 5.00000000000000000000e-01 7.50000000000000000000e-01 1.00000000000000000000e+00 
layer_sizes=25 13 10 
scale_included=0
neurons (num_inputs, activation_function, activation_steepness)=(0, 0, 0.00000000000000000000e+00) (0, 0, 0.00000000000000000000e+00) (0, 0, 0.00000000000000000000e+00) (0, 0, 0.00000000000000000000e+00) (0, 0, 0.00000000000000000000e+00) (0, 0, 0.00000000000000000000e+00) (0, 0, 0.00000000000000000000e+00) (0, 0, 0.00000000000000000000e+00) (0, 0, 0.00000000000000000000e+00) (0, 0, 0.00000000000000000000e+00) (0, 0, 0.00000000000000000000e+00) (0, 0, 0.00000000000000000000e+00) (0, 0, 0.00000000000000000000e+00) (0, 0, 0.00000000000000000000e+00) (0, 0, 0.00000000000000000000e+00) (0, 0, 0.00000000000000000000e+00) (0, 0, 0.00000000000000000000e+00) (0, 0, 0.00000000000000000000e+00) (0, 0, 0.00000000000000000000e+00) (0, 0, 0.00000000000000000000e+00) (0, 0, 0.00000000000000000000e+00) (0, 0, 0.00000000000000000000e+00) (0, 0, 0.00000000000000000000e+00) (0, 0, 0.00000000000000000000e+00) (0, 0, 0.00000000000000000000e+00) (25, 5, 5.00000000000000000000e-01) (25, 5, 5.00000000000000000000e-01) (25, 5, 5.00000000000000000000e-01) (25, 5, 5.00000000000000000000e-01) (25, 5, 5.00000000000000000000e-01) (25, 5, 5.00000000000000000000e-01) (25, 5, 5.00000000000000000000e-01) (25, 5, 5.00000000000000000000e-01) (25, 5, 5.00000000000000000000e-01) (25, 5, 5.00000000000000000000e-01) (25, 5, 5.00000000000000000000e-01) (25, 5, 5.00000000000000000000e-01) (0, 5, 0.00000000000000000000e+00) (13, 5, 5.00000000000000000000e-01) (13, 5, 5.00000000000000000000e-01) (13, 5, 5.00000000000000000000e-01) (13, 5, 5.00000000000000000000e-01) (13, 5, 5.00000000000000000000e-01) (13, 5, 5.00000000000000000000e-01) (13, 5, 5.00000000000000000000e-01) (13, 5, 5.00000000000000000000e-01) (13, 5, 5.00000000000000000000e-01) (0, 5, 0.00000000000000000000e+00) 
connections (connected_to_neuron, weight)=(0, 3.44844728708267211914e-01) (1, 6.92002296447753906250e-01) (2, 1.44270258024334907532e-02) (3, 1.20908200740814208984e-01) (4, -8.41236948966979980469e-01) (5, -9.29917633533477783203e-01) (6, 4.88840937614440917969e-01) (7, 4.92932081222534179688e-01) (8, 2.15084075927734375000e-01) (9, 3.72674874961376190186e-02) (10, 1.56265944242477416992e-01) (11, 8.51281166076660156250e-01) (12, 5.36308169364929199219e-01) (13, 6.85002148151397705078e-01) (14, 5.66513121128082275391e-01) (15, -4.16527599096298217773e-01) (16, 3.05845230817794799805e-01) (17, 2.89717584848403930664e-01) (18, 4.73465412855148315430e-01) (19, 1.47827422618865966797e+00) (20, 5.33581793308258056641e-01) (21, -3.72048115730285644531e+00) (22, 9.12318468093872070312e-01) (23, -4.27814722061157226562e-01) (24, 6.20571792125701904297e-01) (0, -1.70967474579811096191e-01) (1, -7.49130201339721679688e+00) (2, 6.39510095119476318359e-01) (3, 2.77606916427612304688e+00) (4, -1.86411523818969726562e+00) (5, -2.45124757289886474609e-01) (6, -2.05626949667930603027e-01) (7, -1.23128855228424072266e+00) (8, 2.85042345523834228516e-01) (9, 3.50444704294204711914e-01) (10, -1.67094397544860839844e+00) (11, -3.65451633930206298828e-01) (12, -5.22740721702575683594e-01) (13, -5.82469880580902099609e-01) (14, -2.53904461860656738281e-01) (15, 2.08502233028411865234e-01) (16, 4.85893726348876953125e-01) (17, -3.96593868732452392578e-01) (18, -1.26092898845672607422e+00) (19, -4.35353219509124755859e-02) (20, -2.90118217468261718750e+00) (21, 8.53482782840728759766e-01) (22, -1.90774714946746826172e+00) (23, -1.80825263261795043945e-01) (24, 1.48296737670898437500e+00) (0, 1.09915051269531250000e+03) (1, 1.56623992919921875000e+02) (2, 2.82152175903320312500e+00) (3, 1.89051265716552734375e+01) (4, 8.24720382690429687500e+00) (5, 1.09878852844238281250e+02) (6, 1.16267968750000000000e+03) (7, 3.79840850830078125000e+02) (8, 4.70877265930175781250e+01) (9, 2.08131008148193359375e+01) (10, 6.42109375000000000000e+01) (11, 2.89315814971923828125e+01) (12, 5.64594030380249023438e+00) (13, 1.49997436523437500000e+03) (14, 1.49999951171875000000e+03) (15, 2.42423583984375000000e+02) (16, 1.20393371582031250000e+02) (17, 3.29279632568359375000e+01) (18, 5.51018238067626953125e+00) (19, 1.49999902343750000000e+03) (20, 2.00906658172607421875e+01) (21, 5.42762573242187500000e+02) (22, 2.23518886566162109375e+01) (23, 1.49156372070312500000e+03) (24, -1.49958264160156250000e+03) (0, 1.20181024074554443359e-01) (1, 6.62008643150329589844e-01) (2, -1.12920236587524414062e+00) (3, 9.01642918586730957031e-01) (4, 3.49380411207675933838e-02) (5, 5.36009967327117919922e-01) (6, -2.89166599512100219727e-01) (7, 1.35736316442489624023e-01) (8, -6.23860172927379608154e-02) (9, 3.10055315494537353516e-01) (10, -8.09578225016593933105e-02) (11, 1.00214886665344238281e+00) (12, -8.64653706550598144531e-01) (13, 2.58924871683120727539e-01) (14, 5.50722420215606689453e-01) (15, 5.13549745082855224609e-02) (16, 4.19692367315292358398e-01) (17, -1.54476180672645568848e-01) (18, -1.81371760368347167969e+00) (19, 5.27631938457489013672e-01) (20, 1.39944088459014892578e+00) (21, 4.45867925882339477539e-02) (22, 4.28015679121017456055e-01) (23, -1.03053259849548339844e+00) (24, 6.99513196945190429688e-01) (0, 6.58191101074218750000e+02) (1, 2.18668818473815917969e+00) (2, 3.52240943908691406250e+01) (3, 7.69411993026733398438e+00) (4, 2.01740531921386718750e+01) (5, 1.14603173732757568359e+00) (6, 2.22446060180664062500e+01) (7, 8.00112056732177734375e+00) (8, 8.92865371704101562500e+00) (9, 1.22995042800903320312e+00) (10, 1.14902667999267578125e+01) (11, 1.36945858597755432129e-01) (12, 9.84669017791748046875e+00) (13, 1.45984753417968750000e+03) (14, 5.81785812377929687500e+01) (15, 6.95648574829101562500e+00) (16, 3.09388854980468750000e+02) (17, 1.92376422882080078125e+00) (18, 2.22151923179626464844e+00) (19, 1.33894214630126953125e+01) (20, 5.47941017150878906250e+00) (21, 1.63689079284667968750e+01) (22, 1.90976348876953125000e+02) (23, 1.10443859100341796875e+01) (24, -8.87630081176757812500e+01) (0, 1.09911560058593750000e+03) (1, 3.06521568298339843750e+01) (2, 6.73059844970703125000e+01) (3, 1.44653701782226562500e+01) (4, 1.26428085327148437500e+02) (5, 3.73492202758789062500e+01) (6, 8.78908996582031250000e+02) (7, 1.88373260498046875000e+02) (8, 1.36460968017578125000e+02) (9, 4.55899200439453125000e+01) (10, 3.61805999755859375000e+02) (11, 6.66814029216766357422e-01) (12, 2.87666378021240234375e+01) (13, 1.49997412109375000000e+03) (14, 1.50000000000000000000e+03) (15, 1.86672714233398437500e+02) (16, 4.97643737792968750000e+02) (17, 2.66809673309326171875e+01) (18, 4.52791643142700195312e+00) (19, 1.49999902343750000000e+03) (20, 2.23429088592529296875e+01) (21, 1.03369583129882812500e+02) (22, 4.60339538574218750000e+02) (23, 3.75531860351562500000e+02) (24, -8.22005065917968750000e+02) (0, 4.03026223182678222656e-01) (1, 1.47173023223876953125e+00) (2, 2.34182024002075195312e+00) (3, -6.04825687408447265625e+00) (4, 5.83462059497833251953e-01) (5, 2.28782996535301208496e-01) (6, -6.19983315467834472656e-01) (7, 8.27388107776641845703e-01) (8, 8.54731082916259765625e-01) (9, 2.31232419610023498535e-01) (10, 3.92380505800247192383e-01) (11, -5.71827709674835205078e-01) (12, -1.74175930023193359375e+00) (13, 8.21285152435302734375e+00) (14, 4.89981681108474731445e-01) (15, 1.44640254974365234375e+00) (16, -3.99475134909152984619e-02) (17, 4.49384838342666625977e-01) (18, -3.01948690414428710938e+00) (19, 1.55748856067657470703e+00) (20, -1.70357618480920791626e-03) (21, 1.84279465675354003906e+00) (22, -4.91118192672729492188e+00) (23, 1.78589737415313720703e+00) (24, 5.74431598186492919922e-01) (0, 2.53497138619422912598e-02) (1, -2.35765561461448669434e-01) (2, 2.46366471052169799805e-01) (3, -3.02335715293884277344e+00) (4, 3.37266772985458374023e-01) (5, -2.96892940998077392578e-01) (6, 1.42986565828323364258e-01) (7, -2.62781649827957153320e-01) (8, -3.74283902347087860107e-02) (9, 2.56671197712421417236e-02) (10, -2.82452940940856933594e-01) (11, -1.18559494614601135254e-01) (12, 3.03901076316833496094e-01) (13, -6.49360597133636474609e-01) (14, 4.78805631399154663086e-01) (15, 4.27854895591735839844e-01) (16, 4.78261560201644897461e-01) (17, 4.82831835746765136719e-01) (18, 1.89640551805496215820e-01) (19, -4.12529587745666503906e-01) (20, -5.48732399940490722656e-01) (21, 9.10207569599151611328e-01) (22, -2.47358620166778564453e-01) (23, 1.71683192253112792969e+00) (24, 7.90309786796569824219e-01) (0, -1.31426954269409179688e+00) (1, -4.79485511779785156250e-01) (2, 2.05715388059616088867e-01) (3, 1.42294955253601074219e+00) (4, -6.71255402266979217529e-03) (5, 1.34697425365447998047e+00) (6, -9.07984599471092224121e-02) (7, -4.32663738727569580078e-01) (8, -2.92224325239658355713e-02) (9, 5.50990879535675048828e-01) (10, -2.36690416932106018066e-01) (11, 9.99947130680084228516e-01) (12, 9.78517681360244750977e-02) (13, 3.04504007101058959961e-01) (14, 9.18938815593719482422e-02) (15, 2.67283141613006591797e-01) (16, 1.53352245688438415527e-01) (17, 1.98898434638977050781e-01) (18, -2.01457571238279342651e-02) (19, 9.85733509063720703125e-01) (20, -3.17737013101577758789e-02) (21, 1.20230659842491149902e-01) (22, -1.02970957756042480469e-01) (23, 2.33629450201988220215e-01) (24, 8.70034694671630859375e-01) (0, 2.78188556432723999023e-01) (1, 8.41941595077514648438e-01) (2, -7.61015653610229492188e-01) (3, 1.33310973644256591797e-01) (4, -1.39919137954711914062e+00) (5, -2.83209472894668579102e-01) (6, -5.76563701033592224121e-02) (7, 3.02796959877014160156e-01) (8, -3.25792163610458374023e-01) (9, 2.34843850135803222656e-01) (10, 8.50296244025230407715e-02) (11, -3.10571014881134033203e-01) (12, -3.88352692127227783203e-01) (13, 5.21397292613983154297e-01) (14, 7.35927343368530273438e-01) (15, 2.62044876813888549805e-01) (16, -2.72878766059875488281e-01) (17, -1.67568355798721313477e-01) (18, -5.92599749565124511719e-01) (19, 1.39708828926086425781e+00) (20, -1.48847579956054687500e+00) (21, 2.09183514118194580078e-01) (22, -3.95795375108718872070e-01) (23, 1.25901758670806884766e-01) (24, 6.39806568622589111328e-01) (0, -3.20389755070209503174e-02) (1, -4.37470853328704833984e-01) (2, -2.80849504470825195312e+00) (3, 6.33014976978302001953e-01) (4, -9.15957391262054443359e-01) (5, 1.47612541913986206055e-01) (6, 2.92784333229064941406e-01) (7, -3.21478486061096191406e-01) (8, -7.81065881252288818359e-01) (9, 6.04673326015472412109e-01) (10, -1.14839062094688415527e-01) (11, 9.31256860494613647461e-02) (12, 1.76252439618110656738e-01) (13, -2.12454891204833984375e+00) (14, -5.47955811023712158203e-01) (15, 5.49737870693206787109e-01) (16, -1.05594921112060546875e+00) (17, 1.16864509880542755127e-01) (18, 4.03379872441291809082e-02) (19, -3.50301790237426757812e+00) (20, 1.69344786554574966431e-02) (21, 1.32545220851898193359e+00) (22, -2.34054636955261230469e+00) (23, 3.38817477226257324219e-01) (24, 1.05715322494506835938e+00) (0, 1.34182184934616088867e-01) (1, 2.55542010068893432617e-01) (2, -4.49031824246048927307e-03) (3, 4.79538530111312866211e-01) (4, 1.06581318378448486328e+00) (5, -6.29789292812347412109e-01) (6, 2.02240720391273498535e-01) (7, 8.82030427455902099609e-02) (8, -9.07549187541007995605e-02) (9, 6.08570396900177001953e-01) (10, 4.72472794353961944580e-02) (11, 8.18818092346191406250e-01) (12, 5.29901623725891113281e-01) (13, 5.58768864721059799194e-03) (14, 2.65392780303955078125e-01) (15, 3.45484167337417602539e-01) (16, -7.94708803296089172363e-02) (17, 4.95455488562583923340e-02) (18, 3.12666702270507812500e+00) (19, 4.04093980789184570312e-01) (20, -1.44434845447540283203e+00) (21, 4.17008548974990844727e-01) (22, -4.93744611740112304688e-01) (23, 7.72329926490783691406e-01) (24, 4.38454836606979370117e-01) (25, 1.25944360351562500000e+03) (26, 1.41011987304687500000e+03) (27, 1.50000000000000000000e+03) (28, 1.50000000000000000000e+03) (29, 1.44722521972656250000e+03) (30, 1.50000000000000000000e+03) (31, 7.25578247070312500000e+02) (32, 1.50000000000000000000e+03) (33, 1.07799743652343750000e+03) (34, 1.50000000000000000000e+03) (35, 1.50000000000000000000e+03) (36, 1.50000000000000000000e+03) (37, 1.43804833984375000000e+03) (25, 1.50000000000000000000e+03) (26, 3.73531616210937500000e+02) (27, 1.50000000000000000000e+03) (28, 1.50000000000000000000e+03) (29, 1.50000000000000000000e+03) (30, 1.50000000000000000000e+03) (31, 1.50000000000000000000e+03) (32, 1.50000000000000000000e+03) (33, 1.50000000000000000000e+03) (34, 1.50000000000000000000e+03) (35, 1.50000000000000000000e+03) (36, 1.50000000000000000000e+03) (37, 1.50000000000000000000e+03) (25, 1.49949853515625000000e+03) (26, -4.53227462768554687500e+01) (27, 1.50000000000000000000e+03) (28, 9.79085876464843750000e+02) (29, 4.80199707031250000000e+02) (30, 1.50000000000000000000e+03) (31, 5.28111694335937500000e+02) (32, 1.30437316894531250000e+03) (33, 1.03979455566406250000e+03) (34, 1.50000000000000000000e+03) (35, 1.50000000000000000000e+03) (36, 2.41463073730468750000e+02) (37, 1.13651257324218750000e+03) (25, 1.50000000000000000000e+03) (26, 1.50000000000000000000e+03) (27, 1.50000000000000000000e+03) (28, 1.50000000000000000000e+03) (29, 1.50000000000000000000e+03) (30, 1.50000000000000000000e+03) (31, 1.50000000000000000000e+03) (32, 1.50000000000000000000e+03) (33, 1.50000000000000000000e+03) (34, 1.50000000000000000000e+03) (35, 1.50000000000000000000e+03) (36, 1.50000000000000000000e+03) (37, 1.50000000000000000000e+03) (25, -4.91818847656250000000e+02) (26, 1.25730728149414062500e+02) (27, 3.78542053222656250000e+02) (28, 1.18938745117187500000e+03) (29, 9.12949584960937500000e+02) (30, 3.79134826660156250000e+02) (31, 2.84909210205078125000e+02) (32, 8.00173706054687500000e+02) (33, -1.70367279052734375000e+02) (34, -6.07269592285156250000e+02) (35, 1.95275821685791015625e+01) (36, 1.06214378356933593750e+02) (37, 3.97405975341796875000e+02) (25, -2.14083862304687500000e+01) (26, -1.06540250778198242188e+00) (27, 4.18701553344726562500e+00) (28, -2.65534949302673339844e+00) (29, 1.45691883563995361328e+00) (30, 4.29413032531738281250e+00) (31, 1.59166622161865234375e+01) (32, 1.55200088024139404297e+00) (33, -6.92888021469116210938e+00) (34, 6.45821666717529296875e+00) (35, 7.16179192066192626953e-01) (36, 1.68710935115814208984e+00) (37, -2.26149725914001464844e+00) (25, 1.37514306640625000000e+03) (26, 1.49971740722656250000e+03) (27, 1.49961328125000000000e+03) (28, 1.50000000000000000000e+03) (29, 1.85824676513671875000e+02) (30, 1.49961328125000000000e+03) (31, -2.43870986938476562500e+02) (32, 2.11207229614257812500e+02) (33, 3.85116058349609375000e+02) (34, 3.04269256591796875000e+02) (35, 4.56353668212890625000e+02) (36, 1.60905647277832031250e+01) (37, 1.12345275878906250000e+03) (25, -2.86743988037109375000e+02) (26, 1.50000000000000000000e+03) (27, 1.49899841308593750000e+03) (28, 1.50000000000000000000e+03) (29, 1.49899841308593750000e+03) (30, 1.49899841308593750000e+03) (31, 1.05589196777343750000e+03) (32, 1.40125146484375000000e+03) (33, 1.50000000000000000000e+03) (34, 1.50000000000000000000e+03) (35, 1.50000000000000000000e+03) (36, 1.46421752929687500000e+03) (37, 1.50000000000000000000e+03) (25, -1.05970182418823242188e+01) (26, -1.17912960052490234375e+00) (27, 2.60876750946044921875e+00) (28, -6.00646197795867919922e-01) (29, 2.70999050140380859375e+00) (30, 2.65269851684570312500e+00) (31, -1.41699104309082031250e+01) (32, -3.04547953605651855469e+00) (33, 9.62880802154541015625e+00) (34, -1.53994350433349609375e+01) (35, -1.17990386486053466797e+00) (36, 1.38546218872070312500e+01) (37, -1.10553443431854248047e+00) 
