FANN_FLO_2.1
num_layers=3
learning_rate=0.700000
connection_rate=1.000000
network_type=0
learning_momentum=0.000000
training_algorithm=2
train_error_function=1
train_stop_function=0
cascade_output_change_fraction=0.010000
quickprop_decay=-0.000100
quickprop_mu=1.750000
rprop_increase_factor=1.200000
rprop_decrease_factor=0.500000
rprop_delta_min=0.000000
rprop_delta_max=50.000000
rprop_delta_zero=0.100000
cascade_output_stagnation_epochs=12
cascade_candidate_change_fraction=0.010000
cascade_candidate_stagnation_epochs=12
cascade_max_out_epochs=150
cascade_min_out_epochs=50
cascade_max_cand_epochs=150
cascade_min_cand_epochs=50
cascade_num_candidate_groups=2
bit_fail_limit=3.49999994039535522461e-01
cascade_candidate_limit=1.00000000000000000000e+03
cascade_weight_multiplier=4.00000005960464477539e-01
cascade_activation_functions_count=10
cascade_activation_functions=3 5 7 8 10 11 14 15 16 17 
cascade_activation_steepnesses_count=4
cascade_activation_steepnesses=2.50000000000000000000e-01 5.00000000000000000000e-01 7.50000000000000000000e-01 1.00000000000000000000e+00 
layer_sizes=25 13 7 
scale_included=0
neurons (num_inputs, activation_function, activation_steepness)=(0, 0, 0.00000000000000000000e+00) (0, 0, 0.00000000000000000000e+00) (0, 0, 0.00000000000000000000e+00) (0, 0, 0.00000000000000000000e+00) (0, 0, 0.00000000000000000000e+00) (0, 0, 0.00000000000000000000e+00) (0, 0, 0.00000000000000000000e+00) (0, 0, 0.00000000000000000000e+00) (0, 0, 0.00000000000000000000e+00) (0, 0, 0.00000000000000000000e+00) (0, 0, 0.00000000000000000000e+00) (0, 0, 0.00000000000000000000e+00) (0, 0, 0.00000000000000000000e+00) (0, 0, 0.00000000000000000000e+00) (0, 0, 0.00000000000000000000e+00) (0, 0, 0.00000000000000000000e+00) (0, 0, 0.00000000000000000000e+00) (0, 0, 0.00000000000000000000e+00) (0, 0, 0.00000000000000000000e+00) (0, 0, 0.00000000000000000000e+00) (0, 0, 0.00000000000000000000e+00) (0, 0, 0.00000000000000000000e+00) (0, 0, 0.00000000000000000000e+00) (0, 0, 0.00000000000000000000e+00) (0, 0, 0.00000000000000000000e+00) (25, 5, 5.00000000000000000000e-01) (25, 5, 5.00000000000000000000e-01) (25, 5, 5.00000000000000000000e-01) (25, 5, 5.00000000000000000000e-01) (25, 5, 5.00000000000000000000e-01) (25, 5, 5.00000000000000000000e-01) (25, 5, 5.00000000000000000000e-01) (25, 5, 5.00000000000000000000e-01) (25, 5, 5.00000000000000000000e-01) (25, 5, 5.00000000000000000000e-01) (25, 5, 5.00000000000000000000e-01) (25, 5, 5.00000000000000000000e-01) (0, 5, 0.00000000000000000000e+00) (13, 5, 5.00000000000000000000e-01) (13, 5, 5.00000000000000000000e-01) (13, 5, 5.00000000000000000000e-01) (13, 5, 5.00000000000000000000e-01) (13, 5, 5.00000000000000000000e-01) (13, 5, 5.00000000000000000000e-01) (0, 5, 0.00000000000000000000e+00) 
connections (connected_to_neuron, weight)=(0, 2.05756652832031250000e+02) (1, 3.05217313766479492188e+00) (2, -3.84824867248535156250e+01) (3, 1.70840489864349365234e+00) (4, 6.99359464645385742188e+00) (5, 3.42779197692871093750e+01) (6, 7.98529052734375000000e+01) (7, 3.40314369201660156250e+01) (8, 2.59225883483886718750e+01) (9, 9.16546821594238281250e+00) (10, 1.43430158495903015137e-01) (11, -4.77938318252563476562e+00) (12, 1.37511348724365234375e+01) (13, -1.38020801544189453125e+01) (14, 3.36317901611328125000e+02) (15, 1.40934753417968750000e+01) (16, 2.22728896141052246094e+00) (17, 3.18752980232238769531e+00) (18, 3.56083226203918457031e+00) (19, -3.45142517089843750000e+01) (20, 1.22269172668457031250e+02) (21, 3.03133201599121093750e+00) (22, 5.10064468383789062500e+01) (23, 1.89359302520751953125e+01) (24, -1.14851577758789062500e+02) (0, 1.33059387207031250000e+02) (1, 3.33746647834777832031e+00) (2, -1.48041979980468750000e+03) (3, 2.28283047676086425781e+00) (4, 1.94191062450408935547e+00) (5, 2.21188449859619140625e+01) (6, 4.85828208923339843750e+01) (7, 6.66295909881591796875e+00) (8, 1.69501724243164062500e+01) (9, 7.47741270065307617188e+00) (10, 7.64064192771911621094e-01) (11, 5.31275653839111328125e+00) (12, 3.01824665069580078125e+01) (13, 6.90627157688140869141e-01) (14, 3.55782958984375000000e+02) (15, 6.65139436721801757812e+00) (16, 1.78880608081817626953e+00) (17, 2.64941620826721191406e+00) (18, 1.48525495529174804688e+01) (19, 5.25955140590667724609e-01) (20, 8.63853637695312500000e+02) (21, 3.30005645751953125000e+00) (22, 2.39329624176025390625e+01) (23, 3.04791283607482910156e+00) (24, -1.88662185668945312500e+01) (0, -2.87839126586914062500e+00) (1, -2.72816389799118041992e-01) (2, -1.79040706157684326172e+00) (3, 4.65834569931030273438e+00) (4, -7.65254497528076171875e-01) (5, 2.57958412170410156250e+00) (6, -3.87352764606475830078e-01) (7, -8.32875013351440429688e-01) (8, -2.36269450187683105469e+00) (9, 2.87409067153930664062e-01) (10, -3.72061818838119506836e-01) (11, 2.62662023305892944336e-01) (12, 3.82460862398147583008e-01) (13, -3.67105156183242797852e-01) (14, -6.38369321823120117188e-01) (15, -1.19819045066833496094e+00) (16, 1.15929663181304931641e-01) (17, -3.49565774202346801758e-01) (18, 3.62158799171447753906e+00) (19, -3.65534633398056030273e-01) (20, 5.12797451019287109375e+00) (21, -1.16254484653472900391e+00) (22, 3.48253726959228515625e+00) (23, -1.87437045574188232422e+00) (24, 1.06080496311187744141e+00) (0, 4.88792144775390625000e+02) (1, 4.58623838424682617188e+00) (2, -7.97283020019531250000e+01) (3, 7.07592487335205078125e-01) (4, 1.89446282386779785156e+00) (5, 2.35060710906982421875e+01) (6, 2.34110336303710937500e+01) (7, 3.94639167785644531250e+01) (8, 2.33545455932617187500e+01) (9, 9.42471218109130859375e+00) (10, 1.37195420265197753906e+00) (11, -4.58098173141479492188e+00) (12, 1.40985784530639648438e+01) (13, 7.65829443931579589844e-01) (14, 3.79418670654296875000e+02) (15, 5.65743923187255859375e+00) (16, 2.14573383331298828125e+00) (17, 2.41651606559753417969e+00) (18, 7.37148809432983398438e+00) (19, 5.14577150344848632812e-01) (20, 5.30363769531250000000e+01) (21, 2.93345141410827636719e+00) (22, 2.45662326812744140625e+01) (23, 5.09745359420776367188e+00) (24, -5.16436653137207031250e+01) (0, -2.83857900649309158325e-02) (1, -7.86615386605262756348e-02) (2, 7.32715010643005371094e-01) (3, -1.23512792587280273438e+00) (4, 2.77740955352783203125e-01) (5, -8.79268169403076171875e-01) (6, -1.14817112684249877930e-01) (7, -4.97746327891945838928e-03) (8, -2.75851488113403320312e-01) (9, 8.25218670070171356201e-03) (10, 3.34665745496749877930e-01) (11, -1.36169075965881347656e+00) (12, 1.01767577230930328369e-01) (13, -2.74721771478652954102e-01) (14, -2.77715176343917846680e-01) (15, 2.04629242420196533203e-01) (16, -9.76620689034461975098e-02) (17, 6.13850772380828857422e-01) (18, 2.39959821105003356934e-01) (19, -4.51079785823822021484e-01) (20, -1.44326150417327880859e+00) (21, 3.45568180084228515625e+00) (22, 1.83165833353996276855e-01) (23, 6.79400920867919921875e-01) (24, 7.88121819496154785156e-01) (0, 7.28709411621093750000e+02) (1, 3.82170176506042480469e+00) (2, -5.77252578735351562500e+01) (3, 7.39531874656677246094e-01) (4, 3.18046426773071289062e+00) (5, 2.30022754669189453125e+01) (6, 5.68062973022460937500e+01) (7, -1.23042516708374023438e+01) (8, 1.00371351242065429688e+01) (9, 9.28772068023681640625e+00) (10, -3.33131837844848632812e+00) (11, -5.65484333038330078125e+00) (12, 1.43439683914184570312e+01) (13, -3.58070869445800781250e+01) (14, 4.48444580078125000000e+02) (15, 1.34147510528564453125e+01) (16, 2.11176967620849609375e+00) (17, 2.32719659805297851562e+00) (18, 7.25793409347534179688e+00) (19, -3.58702545166015625000e+01) (20, 3.57361053466796875000e+02) (21, 2.93205022811889648438e+00) (22, 2.36786499023437500000e+01) (23, 1.87127151489257812500e+01) (24, -5.94653549194335937500e+01) (0, -1.22435137629508972168e-01) (1, 1.96543049812316894531e+00) (2, 3.11814427375793457031e+00) (3, -3.39218044281005859375e+00) (4, 4.82823103666305541992e-01) (5, -1.73195159435272216797e+00) (6, -6.91875591874122619629e-02) (7, 7.36869215965270996094e-01) (8, 1.86136469244956970215e-01) (9, -6.88066720962524414062e-01) (10, 3.76602381467819213867e-01) (11, -1.17564642429351806641e+00) (12, -6.90835595130920410156e-01) (13, 2.28373780846595764160e-01) (14, 4.18175607919692993164e-01) (15, -1.23284451663494110107e-01) (16, -2.35616564750671386719e-01) (17, -1.81980937719345092773e-01) (18, -6.24441444873809814453e-01) (19, 1.62653341889381408691e-01) (20, 3.14833402633666992188e-01) (21, 2.69377946853637695312e+00) (22, -1.28593444824218750000e+00) (23, 1.36057770252227783203e+00) (24, 9.30955827236175537109e-01) (0, 1.43328475952148437500e+00) (1, -1.75117254257202148438e+00) (2, 1.59476161003112792969e+00) (3, -2.16298365592956542969e+00) (4, -7.75625467300415039062e-01) (5, -2.56783485412597656250e-01) (6, -1.11906394362449645996e-01) (7, -2.50384777784347534180e-01) (8, 6.19074702262878417969e-01) (9, -7.93484091758728027344e-01) (10, -2.05488741397857666016e-01) (11, -1.08142578601837158203e+00) (12, -2.15275064110755920410e-01) (13, 1.31586492061614990234e-01) (14, 1.56784963607788085938e+00) (15, -2.62696892023086547852e-01) (16, -2.16723620891571044922e-01) (17, -1.03601776063442230225e-01) (18, -1.30452227592468261719e+00) (19, 1.51466548442840576172e+00) (20, -7.34127819538116455078e-01) (21, -5.71044802665710449219e-01) (22, 2.99385171383619308472e-02) (23, -4.72024202346801757812e-01) (24, 7.94805765151977539062e-01) (0, 1.86988145112991333008e-01) (1, -2.02709007263183593750e+00) (2, -3.13084907829761505127e-02) (3, 5.36915481090545654297e-01) (4, -3.09632110595703125000e+00) (5, -1.77086971234530210495e-04) (6, 1.66547328233718872070e-01) (7, 1.80078566074371337891e+00) (8, -4.15272861719131469727e-01) (9, 2.82400608062744140625e-01) (10, -6.15718066692352294922e-01) (11, 7.13857114315032958984e-01) (12, 2.12910342961549758911e-02) (13, 1.88991165161132812500e+00) (14, 7.92354941368103027344e-02) (15, -2.01463639736175537109e-01) (16, -2.54855863749980926514e-02) (17, 1.20658673346042633057e-01) (18, -6.08015716075897216797e-01) (19, 2.46622991561889648438e+00) (20, -4.26102459430694580078e-01) (21, -9.45880591869354248047e-01) (22, 9.52311575412750244141e-01) (23, -7.07876443862915039062e-01) (24, 8.00247371196746826172e-01) (0, 8.14242362976074218750e-02) (1, 4.13409024477005004883e-01) (2, -7.07633554935455322266e-01) (3, 9.82519388198852539062e-01) (4, -3.86658519506454467773e-01) (5, -8.63735914230346679688e-01) (6, -1.89667299389839172363e-01) (7, 2.21402540802955627441e-01) (8, -1.35322660207748413086e-01) (9, 6.35413587093353271484e-01) (10, 4.59332376718521118164e-01) (11, -2.98172140121459960938e+00) (12, -6.91461741924285888672e-01) (13, 7.56190240383148193359e-01) (14, 4.15437370538711547852e-01) (15, -3.42418104410171508789e-01) (16, 1.46299809217453002930e-01) (17, 3.42536382377147674561e-02) (18, -4.18004465103149414062e+00) (19, 1.36408901214599609375e+00) (20, 2.46783423423767089844e+00) (21, -1.97970724105834960938e+00) (22, 1.13700783252716064453e+00) (23, -1.24049179255962371826e-01) (24, 7.90057241916656494141e-01) (0, 8.30678462982177734375e-01) (1, 9.52220261096954345703e-01) (2, -2.41415739059448242188e+00) (3, 4.35237169265747070312e+00) (4, 3.61075371503829956055e-01) (5, 1.38461029529571533203e+00) (6, 1.76938399672508239746e-01) (7, 2.22567343711853027344e+00) (8, -3.66837453842163085938e+00) (9, 7.33658730983734130859e-01) (10, 3.50303649902343750000e-01) (11, 5.81611454486846923828e-01) (12, 1.21291510760784149170e-01) (13, -1.32515162229537963867e-01) (14, 8.40927362442016601562e-01) (15, 1.65277516841888427734e+00) (16, 5.33487617969512939453e-01) (17, 5.95026552677154541016e-01) (18, -6.23417854309082031250e-01) (19, -2.42892861366271972656e-01) (20, 3.59014773368835449219e+00) (21, 3.55579090118408203125e+00) (22, 6.92456662654876708984e-01) (23, 1.07786858081817626953e+00) (24, 4.30511415004730224609e-01) (0, 8.24002861976623535156e-01) (1, -7.81387424468994140625e+00) (2, 1.23676908016204833984e+00) (3, 2.62690138816833496094e+00) (4, -1.44831061363220214844e+00) (5, 4.87844496965408325195e-01) (6, -1.46601814776659011841e-02) (7, -3.41120332479476928711e-01) (8, -1.82202726602554321289e-01) (9, 2.62941932678222656250e+00) (10, 3.66654247045516967773e-01) (11, -1.04087674617767333984e+00) (12, 5.45709170401096343994e-02) (13, 9.43345308303833007812e-01) (14, -1.95720779895782470703e+00) (15, -1.06273749843239784241e-02) (16, -4.18353453278541564941e-02) (17, 9.28876847028732299805e-02) (18, -9.14300680160522460938e-02) (19, 2.36755299568176269531e+00) (20, -3.19319987297058105469e+00) (21, 4.43312264978885650635e-02) (22, 7.73483216762542724609e-01) (23, -4.94865715503692626953e-01) (24, 1.02721023559570312500e+00) (25, 3.47149085998535156250e+01) (26, -3.07073154449462890625e+01) (27, -1.38031158447265625000e+02) (28, 3.14545650482177734375e+01) (29, -3.84727706909179687500e+01) (30, 9.54729747772216796875e+00) (31, -1.42900436401367187500e+02) (32, 1.69636497497558593750e+01) (33, -1.52393636703491210938e+01) (34, 7.34227066040039062500e+01) (35, 2.75903472900390625000e+01) (36, -1.95902633666992187500e+01) (37, -1.20769290924072265625e+01) (25, 1.45000000000000000000e+03) (26, 1.50000000000000000000e+03) (27, 1.50000000000000000000e+03) (28, 1.45000000000000000000e+03) (29, 1.32313574218750000000e+03) (30, 1.45000000000000000000e+03) (31, 1.50000000000000000000e+03) (32, 1.50000000000000000000e+03) (33, 1.44050390625000000000e+03) (34, 1.50000000000000000000e+03) (35, 1.45000000000000000000e+03) (36, 5.83535156250000000000e+01) (37, 1.50000000000000000000e+03) (25, 1.50000000000000000000e+03) (26, 1.38739331054687500000e+03) (27, 1.18287023925781250000e+03) (28, 1.50000000000000000000e+03) (29, 1.50000000000000000000e+03) (30, 1.50000000000000000000e+03) (31, 1.50000000000000000000e+03) (32, 1.48100000000000000000e+03) (33, 1.50000000000000000000e+03) (34, 1.48100000000000000000e+03) (35, 1.50000000000000000000e+03) (36, 1.48100000000000000000e+03) (37, 1.48100000000000000000e+03) (25, 3.73773455619812011719e+00) (26, 1.47833490371704101562e+00) (27, -1.09200775623321533203e-01) (28, 3.53047108650207519531e+00) (29, 1.03098564147949218750e+01) (30, 2.79000163078308105469e+00) (31, 1.14384269714355468750e+01) (32, -8.49687755107879638672e-01) (33, -7.90992975234985351562e+00) (34, -4.52300834655761718750e+00) (35, 1.87515413761138916016e+00) (36, 9.70905590057373046875e+00) (37, -1.67507767677307128906e+00) (25, 1.48444799804687500000e+03) (26, 1.50000000000000000000e+03) (27, 1.50000000000000000000e+03) (28, 1.48444799804687500000e+03) (29, 1.25327905273437500000e+03) (30, 1.48444799804687500000e+03) (31, 8.34425537109375000000e+02) (32, 1.48444799804687500000e+03) (33, 1.50000000000000000000e+03) (34, 1.50000000000000000000e+03) (35, 1.44087744140625000000e+03) (36, 1.50000000000000000000e+03) (37, 1.50000000000000000000e+03) (25, 1.64709186553955078125e+00) (26, -2.70903944969177246094e+00) (27, 9.49985694885253906250e+00) (28, 1.10992884635925292969e+00) (29, -2.80501651763916015625e+00) (30, 1.58116149902343750000e+00) (31, -1.87611675262451171875e+01) (32, -1.11728839874267578125e+01) (33, -1.27529704570770263672e+00) (34, -1.53114194869995117188e+01) (35, 1.69181251525878906250e+00) (36, -2.41450481414794921875e+01) (37, 6.59891366958618164062e-01) 
