FANN_FLO_2.1
num_layers=3
learning_rate=0.700000
connection_rate=1.000000
network_type=0
learning_momentum=0.000000
training_algorithm=2
train_error_function=1
train_stop_function=0
cascade_output_change_fraction=0.010000
quickprop_decay=-0.000100
quickprop_mu=1.750000
rprop_increase_factor=1.200000
rprop_decrease_factor=0.500000
rprop_delta_min=0.000000
rprop_delta_max=50.000000
rprop_delta_zero=0.100000
cascade_output_stagnation_epochs=12
cascade_candidate_change_fraction=0.010000
cascade_candidate_stagnation_epochs=12
cascade_max_out_epochs=150
cascade_min_out_epochs=50
cascade_max_cand_epochs=150
cascade_min_cand_epochs=50
cascade_num_candidate_groups=2
bit_fail_limit=3.49999994039535522461e-01
cascade_candidate_limit=1.00000000000000000000e+03
cascade_weight_multiplier=4.00000005960464477539e-01
cascade_activation_functions_count=10
cascade_activation_functions=3 5 7 8 10 11 14 15 16 17 
cascade_activation_steepnesses_count=4
cascade_activation_steepnesses=2.50000000000000000000e-01 5.00000000000000000000e-01 7.50000000000000000000e-01 1.00000000000000000000e+00 
layer_sizes=13 13 7 
scale_included=0
neurons (num_inputs, activation_function, activation_steepness)=(0, 0, 0.00000000000000000000e+00) (0, 0, 0.00000000000000000000e+00) (0, 0, 0.00000000000000000000e+00) (0, 0, 0.00000000000000000000e+00) (0, 0, 0.00000000000000000000e+00) (0, 0, 0.00000000000000000000e+00) (0, 0, 0.00000000000000000000e+00) (0, 0, 0.00000000000000000000e+00) (0, 0, 0.00000000000000000000e+00) (0, 0, 0.00000000000000000000e+00) (0, 0, 0.00000000000000000000e+00) (0, 0, 0.00000000000000000000e+00) (0, 0, 0.00000000000000000000e+00) (13, 5, 5.00000000000000000000e-01) (13, 5, 5.00000000000000000000e-01) (13, 5, 5.00000000000000000000e-01) (13, 5, 5.00000000000000000000e-01) (13, 5, 5.00000000000000000000e-01) (13, 5, 5.00000000000000000000e-01) (13, 5, 5.00000000000000000000e-01) (13, 5, 5.00000000000000000000e-01) (13, 5, 5.00000000000000000000e-01) (13, 5, 5.00000000000000000000e-01) (13, 5, 5.00000000000000000000e-01) (13, 5, 5.00000000000000000000e-01) (0, 5, 0.00000000000000000000e+00) (13, 5, 5.00000000000000000000e-01) (13, 5, 5.00000000000000000000e-01) (13, 5, 5.00000000000000000000e-01) (13, 5, 5.00000000000000000000e-01) (13, 5, 5.00000000000000000000e-01) (13, 5, 5.00000000000000000000e-01) (0, 5, 0.00000000000000000000e+00) 
connections (connected_to_neuron, weight)=(0, 2.26600080728530883789e-01) (1, 4.42997723817825317383e-01) (2, 1.89346402883529663086e-01) (3, 6.94589078426361083984e-01) (4, -1.05064415931701660156e+00) (5, -8.94448161125183105469e-01) (6, 3.34907442331314086914e-01) (7, -8.92268836498260498047e-01) (8, 2.46096272021532058716e-02) (9, 4.51210439205169677734e-01) (10, -2.13161921501159667969e+00) (11, -2.55426671355962753296e-02) (12, 7.51596838235855102539e-02) (0, 1.74966514110565185547e+00) (1, -7.53496959805488586426e-03) (2, 2.45041742920875549316e-01) (3, 1.49548128247261047363e-01) (4, -5.70096522569656372070e-02) (5, 2.55315750837326049805e-02) (6, 1.00597843527793884277e-01) (7, 4.67023164033889770508e-01) (8, 1.74389332532882690430e-01) (9, -6.51227533817291259766e-01) (10, 1.62546753883361816406e+00) (11, 1.45811438560485839844e+00) (12, 1.05135774612426757812e+01) (0, -1.58794134855270385742e-01) (1, 4.40127342939376831055e-01) (2, -2.11975485086441040039e-01) (3, 5.85860669612884521484e-01) (4, -1.45870482921600341797e+00) (5, 6.17404162883758544922e-01) (6, 6.76883459091186523438e-01) (7, -1.03404045104980468750e+00) (8, -1.90170496702194213867e-01) (9, 5.39893746376037597656e-01) (10, 4.82428401708602905273e-01) (11, -3.36871862411499023438e-01) (12, 7.03697144985198974609e-01) (0, 1.99440574645996093750e+00) (1, 4.28730344772338867188e+00) (2, 4.20179754495620727539e-01) (3, -3.91816616058349609375e+00) (4, 1.10972547531127929688e+00) (5, 7.81077671051025390625e+00) (6, 6.36044144630432128906e-01) (7, -1.72672021389007568359e+00) (8, -5.13952374458312988281e-01) (9, 1.51938080787658691406e-01) (10, -1.71969890594482421875e+00) (11, 1.80322885513305664062e-01) (12, 1.34538841247558593750e+00) (0, 4.32523250579833984375e-01) (1, 1.01753294467926025391e+00) (2, 7.47798383235931396484e-03) (3, 7.92306959629058837891e-02) (4, 8.43373417854309082031e-01) (5, -1.95495676994323730469e+00) (6, 6.65516436100006103516e-01) (7, 1.98267269134521484375e+00) (8, -1.86591163277626037598e-01) (9, 4.45925593376159667969e-01) (10, -9.75010454654693603516e-01) (11, -3.13626192510128021240e-02) (12, 4.81427967548370361328e-01) (0, 1.52226638793945312500e+00) (1, 4.78282481431961059570e-01) (2, 1.38437345623970031738e-01) (3, -1.03139556944370269775e-01) (4, 9.12102684378623962402e-02) (5, 8.85838687419891357422e-01) (6, 2.96053022146224975586e-01) (7, -5.00301122665405273438e-01) (8, 1.69590905308723449707e-01) (9, -1.04559183120727539062e-01) (10, -1.63290894031524658203e+00) (11, 6.33680701255798339844e-01) (12, -1.05803918838500976562e+00) (0, -3.79210740327835083008e-01) (1, -2.26187944412231445312e-01) (2, 1.01854801177978515625e+00) (3, -2.30507060885429382324e-01) (4, -2.39422414451837539673e-02) (5, 3.39017003774642944336e-01) (6, 4.61455726623535156250e+00) (7, -5.30582785606384277344e-01) (8, -2.72412967681884765625e+00) (9, 2.26437377929687500000e+00) (10, 4.30909663438796997070e-01) (11, -2.07462954521179199219e+00) (12, 4.64747309684753417969e-01) (0, 2.88308811187744140625e+00) (1, -3.33866886794567108154e-02) (2, 7.57050812244415283203e-01) (3, 3.22849720716476440430e-01) (4, -1.71977490186691284180e-01) (5, 3.03782731294631958008e-01) (6, 4.44469600915908813477e-01) (7, -1.31097078323364257812e+00) (8, -1.52181647717952728271e-02) (9, 8.54786485433578491211e-02) (10, -6.36214256286621093750e-01) (11, 1.95603638887405395508e-01) (12, 1.05312156677246093750e+01) (0, -3.33684355020523071289e-01) (1, -2.08807229995727539062e-01) (2, 3.17597329616546630859e-01) (3, 7.82528936862945556641e-01) (4, -9.64210808277130126953e-01) (5, -1.17166504263877868652e-01) (6, 4.10111784934997558594e-01) (7, -1.25659883022308349609e+00) (8, -9.66015607118606567383e-02) (9, 4.34396982192993164062e-01) (10, -3.69040042161941528320e-01) (11, -3.16968947649002075195e-01) (12, -1.80790805816650390625e+00) (0, 1.70048028230667114258e-01) (1, -1.05191411972045898438e+01) (2, 1.04597587585449218750e+01) (3, -1.47253721952438354492e-01) (4, -7.91611480712890625000e+00) (5, -1.27623332664370536804e-02) (6, 1.15259826183319091797e+00) (7, -1.94428873062133789062e+00) (8, -9.21835422515869140625e-01) (9, 8.69282722473144531250e-01) (10, 8.89198556542396545410e-02) (11, -3.99627178907394409180e-01) (12, -1.36399284005165100098e-01) (0, 3.56213271617889404297e-01) (1, -3.67054820060729980469e-01) (2, 2.45477154850959777832e-01) (3, 9.55142527818679809570e-02) (4, -1.20880022644996643066e-01) (5, 2.51377254724502563477e-01) (6, 2.87695378065109252930e-01) (7, -1.76996481418609619141e+00) (8, -1.20280673727393150330e-02) (9, -4.87065874040126800537e-02) (10, -2.21069431304931640625e+00) (11, 3.85809123516082763672e-01) (12, -1.91478505730628967285e-01) (0, 2.80842203646898269653e-02) (1, 5.06394195556640625000e+00) (2, -9.73130092024803161621e-02) (3, 4.18321222066879272461e-01) (4, 5.34798443317413330078e-01) (5, 6.38751864433288574219e-01) (6, -1.76181029528379440308e-02) (7, 9.09493446350097656250e-01) (8, 5.56977808475494384766e-01) (9, 1.23172864317893981934e-01) (10, 7.37163841724395751953e-01) (11, 1.80465102195739746094e-01) (12, -4.17379426956176757812e+00) (13, 6.01478040218353271484e-01) (14, -2.50464081764221191406e-01) (15, 3.84221911430358886719e+00) (16, 1.64102959632873535156e+00) (17, 3.14963126182556152344e+00) (18, -2.97066593170166015625e+00) (19, 4.69553518295288085938e+00) (20, 1.64462164044380187988e-01) (21, 9.75132524967193603516e-01) (22, 2.09253644943237304688e+00) (23, 1.07579216361045837402e-01) (24, -1.69745302200317382812e+00) (25, 7.70627021789550781250e-01) (13, 2.81675386428833007812e+00) (14, -2.89567089080810546875e+00) (15, -5.02301037311553955078e-01) (16, -6.18137657642364501953e-01) (17, 4.50675439834594726562e+00) (18, 1.09474882483482360840e-01) (19, 1.30460649728775024414e-01) (20, -9.20240819454193115234e-01) (21, 3.56379188597202301025e-02) (22, 2.34326049685478210449e-01) (23, 2.95123386383056640625e+00) (24, -3.31355512142181396484e-01) (25, -2.90063571929931640625e+00) (13, 9.20810997486114501953e-01) (14, -1.90502214431762695312e+00) (15, 1.13522720336914062500e+00) (16, -2.12240004539489746094e+00) (17, -4.46909809112548828125e+00) (18, 1.10342405736446380615e-01) (19, 5.29630295932292938232e-02) (20, -5.61556637287139892578e-01) (21, 4.70721864700317382812e+00) (22, -3.41021120548248291016e-01) (23, 3.13604623079299926758e-01) (24, 1.94766059517860412598e-01) (25, -1.75897979736328125000e+00) (13, -2.34408140182495117188e+00) (14, -1.12807285785675048828e+00) (15, -2.94759329408407211304e-02) (16, -4.86521434783935546875e+00) (17, 5.12254536151885986328e-01) (18, -1.35605752468109130859e+00) (19, 2.68955856561660766602e-01) (20, -1.14026510715484619141e+00) (21, 1.55727928504347801208e-02) (22, 2.71055042743682861328e-01) (23, -2.25034046173095703125e+00) (24, 5.55121600627899169922e-01) (25, -2.55154395103454589844e+00) (13, -1.50853252410888671875e+00) (14, -1.33940672874450683594e+00) (15, -2.29314386844635009766e-01) (16, 1.02147388458251953125e+00) (17, -4.38492584228515625000e+00) (18, 1.23542614281177520752e-01) (19, 5.91987848281860351562e-01) (20, -3.62303495407104492188e-01) (21, 8.43481063842773437500e-01) (22, 9.50218772888183593750e+00) (23, 1.58588516712188720703e+00) (24, 2.88511705398559570312e+00) (25, -2.44173336029052734375e+00) (13, -3.75868119299411773682e-02) (14, -1.45526432991027832031e+00) (15, -4.51369956135749816895e-02) (16, 6.02807092666625976562e+00) (17, 2.60284280776977539062e+00) (18, 4.13769423961639404297e-01) (19, 4.97657477855682373047e-01) (20, -1.38300693035125732422e+00) (21, 2.83307075500488281250e-01) (22, -1.48451387882232666016e+00) (23, -8.57359766960144042969e-01) (24, 1.00395512580871582031e+00) (25, -3.23062825202941894531e+00) 
