FANN_FLO_2.1
num_layers=3
learning_rate=0.700000
connection_rate=1.000000
network_type=0
learning_momentum=0.000000
training_algorithm=2
train_error_function=1
train_stop_function=0
cascade_output_change_fraction=0.010000
quickprop_decay=-0.000100
quickprop_mu=1.750000
rprop_increase_factor=1.200000
rprop_decrease_factor=0.500000
rprop_delta_min=0.000000
rprop_delta_max=50.000000
rprop_delta_zero=0.100000
cascade_output_stagnation_epochs=12
cascade_candidate_change_fraction=0.010000
cascade_candidate_stagnation_epochs=12
cascade_max_out_epochs=150
cascade_min_out_epochs=50
cascade_max_cand_epochs=150
cascade_min_cand_epochs=50
cascade_num_candidate_groups=2
bit_fail_limit=3.49999994039535522461e-01
cascade_candidate_limit=1.00000000000000000000e+03
cascade_weight_multiplier=4.00000005960464477539e-01
cascade_activation_functions_count=10
cascade_activation_functions=3 5 7 8 10 11 14 15 16 17 
cascade_activation_steepnesses_count=4
cascade_activation_steepnesses=2.50000000000000000000e-01 5.00000000000000000000e-01 7.50000000000000000000e-01 1.00000000000000000000e+00 
layer_sizes=13 13 5 
scale_included=0
neurons (num_inputs, activation_function, activation_steepness)=(0, 0, 0.00000000000000000000e+00) (0, 0, 0.00000000000000000000e+00) (0, 0, 0.00000000000000000000e+00) (0, 0, 0.00000000000000000000e+00) (0, 0, 0.00000000000000000000e+00) (0, 0, 0.00000000000000000000e+00) (0, 0, 0.00000000000000000000e+00) (0, 0, 0.00000000000000000000e+00) (0, 0, 0.00000000000000000000e+00) (0, 0, 0.00000000000000000000e+00) (0, 0, 0.00000000000000000000e+00) (0, 0, 0.00000000000000000000e+00) (0, 0, 0.00000000000000000000e+00) (13, 5, 5.00000000000000000000e-01) (13, 5, 5.00000000000000000000e-01) (13, 5, 5.00000000000000000000e-01) (13, 5, 5.00000000000000000000e-01) (13, 5, 5.00000000000000000000e-01) (13, 5, 5.00000000000000000000e-01) (13, 5, 5.00000000000000000000e-01) (13, 5, 5.00000000000000000000e-01) (13, 5, 5.00000000000000000000e-01) (13, 5, 5.00000000000000000000e-01) (13, 5, 5.00000000000000000000e-01) (13, 5, 5.00000000000000000000e-01) (0, 5, 0.00000000000000000000e+00) (13, 5, 5.00000000000000000000e-01) (13, 5, 5.00000000000000000000e-01) (13, 5, 5.00000000000000000000e-01) (13, 5, 5.00000000000000000000e-01) (0, 5, 0.00000000000000000000e+00) 
connections (connected_to_neuron, weight)=(0, -5.21219587326049804688e+00) (1, -1.07978427410125732422e+00) (2, 5.90844583511352539062e+00) (3, -5.31931734085083007812e+00) (4, 1.62235200405120849609e+00) (5, -1.11075413227081298828e+00) (6, 9.63975489139556884766e-01) (7, 2.01413050293922424316e-01) (8, 7.37202689051628112793e-02) (9, 1.15757465362548828125e+00) (10, 8.89180719852447509766e-01) (11, -7.48007178306579589844e-01) (12, -2.22848820686340332031e+00) (0, 2.98360538482666015625e+00) (1, 2.48098826408386230469e+00) (2, 5.30980110168457031250e-01) (3, 3.12372064590454101562e+00) (4, -2.64125299453735351562e+00) (5, 1.02526009082794189453e+00) (6, -4.57473605871200561523e-01) (7, 4.60728615522384643555e-01) (8, 5.55253207683563232422e-01) (9, -2.31040143966674804688e+00) (10, -1.90344011783599853516e+00) (11, 3.08053946495056152344e+00) (12, -2.22774103283882141113e-01) (0, 3.03868278861045837402e-02) (1, 2.52274721860885620117e-01) (2, 1.22610414028167724609e+00) (3, 6.64926245808601379395e-02) (4, -3.23644965887069702148e-01) (5, 1.24673950672149658203e+00) (6, 4.78252321481704711914e-01) (7, 2.07604542374610900879e-01) (8, 1.37502223253250122070e-01) (9, 4.03415203094482421875e-01) (10, 6.96321725845336914062e-01) (11, 5.66280707716941833496e-02) (12, -2.13637933135032653809e-01) (0, -1.59672141075134277344e+00) (1, -1.56615793704986572266e+00) (2, 1.42400890588760375977e-01) (3, -1.50422298908233642578e+00) (4, 1.07104122638702392578e+00) (5, -1.61458742618560791016e+00) (6, 3.51458460092544555664e-01) (7, -7.04122483730316162109e-01) (8, -6.08156323432922363281e-01) (9, 9.55874621868133544922e-01) (10, 2.83122122287750244141e-01) (11, -5.44574677944183349609e-01) (12, -1.90635418891906738281e+00) (0, -1.07273653149604797363e-01) (1, -3.53668741881847381592e-02) (2, 6.37468695640563964844e-01) (3, -1.88525721430778503418e-01) (4, 9.71031263470649719238e-02) (5, 5.75434982776641845703e-01) (6, 1.34422826766967773438e+00) (7, 7.15269863605499267578e-01) (8, 2.86495357751846313477e-01) (9, 2.45815113186836242676e-01) (10, 2.23393416404724121094e+00) (11, -3.09706944972276687622e-02) (12, -1.24004912376403808594e+00) (0, 3.42022448778152465820e-01) (1, 4.36807245016098022461e-01) (2, 2.92155891656875610352e-01) (3, 5.04611611366271972656e-01) (4, 7.43800252676010131836e-02) (5, 2.89926856756210327148e-01) (6, -9.74737644195556640625e-01) (7, -1.65813937783241271973e-01) (8, -1.87644645571708679199e-01) (9, 8.10722261667251586914e-02) (10, -1.00345456600189208984e+00) (11, 5.60722649097442626953e-01) (12, -1.47364175319671630859e+00) (0, -1.96534395217895507812e-02) (1, -7.25125819444656372070e-02) (2, -2.75183796882629394531e-01) (3, -1.43172159790992736816e-01) (4, 6.31162405014038085938e-01) (5, -2.69404828548431396484e-01) (6, 2.75387078523635864258e-01) (7, 3.76268357038497924805e-01) (8, 4.71084684133529663086e-01) (9, 3.09616446495056152344e-01) (10, 2.33096227049827575684e-01) (11, 1.24594412744045257568e-01) (12, -1.85325467586517333984e+00) (0, 4.88419294357299804688e-01) (1, 5.56913435459136962891e-01) (2, 4.29079294204711914062e-01) (3, 4.77588683366775512695e-01) (4, -1.87304958701133728027e-01) (5, 3.41263979673385620117e-01) (6, 3.97031933069229125977e-01) (7, -2.04505562782287597656e-01) (8, -1.67860120534896850586e-01) (9, 5.34869313240051269531e-01) (10, 1.60135716199874877930e-01) (11, -5.94023615121841430664e-02) (12, 3.71916294097900390625e+00) (0, -4.44118618965148925781e-01) (1, -5.11296570301055908203e-01) (2, -6.19607925415039062500e-01) (3, -5.11236310005187988281e-01) (4, 7.45940744876861572266e-01) (5, -3.97011995315551757812e-01) (6, -1.02063369750976562500e+00) (7, 1.89037069678306579590e-01) (8, 2.04245731234550476074e-01) (9, 1.62277892231941223145e-01) (10, -6.67409241199493408203e-01) (11, 2.38565564155578613281e-01) (12, -1.22848558425903320312e+00) (0, 1.61729025840759277344e+00) (1, 9.57875669002532958984e-01) (2, 3.88441056013107299805e-01) (3, 1.60212361812591552734e+00) (4, -6.97139382362365722656e-01) (5, 2.53172826766967773438e+00) (6, 4.80282574892044067383e-01) (7, 8.01915049552917480469e-01) (8, 8.95341396331787109375e-01) (9, 2.88408935070037841797e-01) (10, 3.42668622732162475586e-01) (11, 3.34632217884063720703e-01) (12, 1.00728094577789306641e+00) (0, -1.44723737239837646484e+00) (1, -7.99262642860412597656e-01) (2, -3.46500784158706665039e-01) (3, -1.43206632137298583984e+00) (4, 2.23872041702270507812e+00) (5, -7.11150217056274414062e+00) (6, -1.73181927204132080078e+00) (7, 4.04973983764648437500e-01) (8, 4.08114910125732421875e-01) (9, -3.16026806831359863281e-01) (10, -1.16630339622497558594e+00) (11, 6.43947839736938476562e-01) (12, -2.75789928436279296875e+00) (0, -1.78940224647521972656e+00) (1, -1.78020405769348144531e+00) (2, 2.78733283281326293945e-01) (3, -1.68080842494964599609e+00) (4, 1.47550153732299804688e+00) (5, -2.30760335922241210938e+00) (6, 7.00921416282653808594e-01) (7, 1.05502128601074218750e+00) (8, 1.19347739219665527344e+00) (9, 4.50282931327819824219e-01) (10, 7.27003276348114013672e-01) (11, -7.90385678410530090332e-02) (12, 1.43490362167358398438e+00) (13, 4.94673997163772583008e-01) (14, -1.27715768814086914062e+01) (15, -4.81577873229980468750e+00) (16, 1.36457788944244384766e+00) (17, -2.38622736930847167969e+00) (18, -5.03253173828125000000e+00) (19, -1.18372690677642822266e+00) (20, 3.53942847251892089844e+00) (21, -1.16290307044982910156e+00) (22, -7.33400166034698486328e-01) (23, -3.20545721054077148438e+00) (24, 3.63636803627014160156e+00) (25, 1.67436218261718750000e+00) (13, 3.24918627738952636719e-01) (14, 9.13810729980468750000e-01) (15, 5.60686647891998291016e-01) (16, 8.49737167358398437500e-01) (17, -8.90704914927482604980e-02) (18, 2.46346735954284667969e+00) (19, 7.77894482016563415527e-02) (20, -3.63123923540115356445e-01) (21, -8.81907463073730468750e+00) (22, -3.17825049161911010742e-01) (23, -1.41291236877441406250e+00) (24, -4.29038763046264648438e+00) (25, -6.84547948837280273438e+00) (13, 4.15390223264694213867e-01) (14, -4.02358591556549072266e-01) (15, -2.02176022529602050781e+00) (16, 4.08024340867996215820e-01) (17, -1.41423928737640380859e+00) (18, 2.43563866615295410156e+00) (19, 1.58888220787048339844e-01) (20, -1.10394649207592010498e-01) (21, 1.31738567352294921875e+00) (22, -4.73682910203933715820e-01) (23, 2.76235175132751464844e+00) (24, 1.90984576940536499023e-01) (25, -1.19062530994415283203e+00) (13, 1.24473464488983154297e+00) (14, 9.21350792050361633301e-02) (15, 9.44078505039215087891e-01) (16, 1.79580748081207275391e-01) (17, 5.50648927688598632812e+00) (18, -1.79993104934692382812e+00) (19, 9.04170751571655273438e-01) (20, -8.05301010608673095703e-01) (21, 9.13865804672241210938e-01) (22, -4.24443297088146209717e-02) (23, 1.66153764724731445312e+00) (24, 4.44548934698104858398e-01) (25, -1.63997268676757812500e+00) 
